Language model created by QuickLM on Tue May 15 09:52:49 EDT 2018
Copyright (c) 1996-2010 Carnegie Mellon University and Alexander I. Rudnicky

The model is in standard ARPA format, designed by Doug Paul while he was at MITRE.

The code that was used to produce this language model is available in Open Source.
Please visit http://www.speech.cs.cmu.edu/tools/ for more information

The (fixed) discount mass is 0.5. The backoffs are computed using the ratio method.
This model based on a corpus of 55 sentences and 73 words

\data\
ngram 1=73
ngram 2=150
ngram 3=152

\1-grams:
-1.0520 </s> -0.3010
-1.0520 <s> -0.2506
-2.1903 A -0.2975
-2.4914 ALARM -0.2607
-2.7924 ALIVE -0.2607
-2.7924 AN -0.2996
-2.1903 ANY -0.2954
-1.5619 ARE -0.2802
-2.4914 BE -0.2996
-2.7924 BIRTHDAY -0.2607
-2.3153 BROTHER -0.2576
-2.7924 BROTHERS -0.2982
-2.1903 CAN -0.2788
-2.4914 COLOR -0.2474
-2.4914 COLOUR -0.2474
-2.7924 COOL -0.2607
-2.7924 DATE -0.2607
-2.3153 DAY -0.2795
-2.7924 DEMO -0.2996
-2.1903 DID -0.2802
-2.0934 DO -0.2817
-2.7924 DOING -0.2607
-2.7924 FEEL -0.2607
-2.7924 FOR -0.2607
-2.7924 FRIENDS -0.2607
-2.4914 GOING -0.2607
-2.7924 HAPPY -0.2607
-2.1903 HAVE -0.2982
-2.4914 HEAD -0.2607
-2.7924 HEAR -0.2607
-2.7924 HELLO -0.2607
-1.9473 HOW -0.2765
-2.4914 HUMAN -0.2607
-2.4914 I -0.2982
-2.7924 INTELLIGENT -0.2607
-2.7924 INTRODUCE -0.3003
-1.7510 IS -0.2904
-2.4914 IT -0.2607
-2.3153 JOKE -0.2607
-2.7924 KIND -0.2607
-2.7924 LENGTH -0.2607
-2.7924 ME -0.2982
-2.7924 MOVE -0.2940
-2.4914 NAME -0.2607
-2.1903 OR -0.2961
-2.7924 PLEASE -0.2607
-2.7924 REPEAT -0.2607
-2.7924 RESET -0.2607
-2.3153 SAY -0.2576
-2.7924 SENTIENT -0.2607
-2.4914 SET -0.2982
-2.4914 SISTER -0.2576
-2.4914 SISTERS -0.2576
-2.7924 SMART -0.2607
-2.7924 SMILE -0.2607
-2.7924 TABLET -0.3003
-2.7924 TALL -0.2890
-2.4914 TELL -0.2975
-2.3153 THE -0.2982
-2.7924 THINK -0.2607
-2.7924 TIME -0.2933
-2.7924 TODAY -0.2607
-2.7924 TRUST -0.2817
-2.7924 TURN -0.2940
-2.7924 UNDERSTAND -0.2607
-2.4914 WE -0.2591
-1.5883 WHAT -0.2721
-2.7924 WHAT'S -0.2940
-2.7924 WHEN -0.2933
-2.7924 WHO -0.2890
-1.3610 YOU -0.2402
-1.7924 YOUR -0.2911
-2.7924 YOURSELF -0.2607

\2-grams:
-1.1383 <s> ARE -0.0248
-2.0414 <s> BE -0.1761
-1.4393 <s> CAN 0.0000
-1.4393 <s> DO 0.0000
-2.0414 <s> HELLO 0.0000
-1.1963 <s> HOW 0.0000
-2.0414 <s> INTRODUCE 0.0000
-2.0414 <s> MOVE 0.0000
-2.0414 <s> REPEAT 0.0000
-2.0414 <s> RESET 0.0000
-2.0414 <s> SAY -0.2218
-1.7404 <s> SET 0.0000
-2.0414 <s> SMILE 0.0000
-1.7404 <s> TELL 0.0000
-2.0414 <s> TURN 0.0000
-0.8373 <s> WHAT 0.0000
-2.0414 <s> WHAT'S 0.0000
-2.0414 <s> WHEN 0.0000
-2.0414 <s> WHO 0.0000
-0.9031 A HUMAN 0.0000
-0.4260 A JOKE 0.0000
-0.3010 ALARM </s> -0.3010
-0.3010 ALIVE </s> -0.3010
-0.3010 AN ALARM 0.0000
-0.9031 ANY BROTHER -0.2218
-0.9031 ANY BROTHERS 0.0000
-0.9031 ANY SISTER -0.1761
-0.9031 ANY SISTERS -0.1761
-1.5315 ARE WE -0.1761
-0.3274 ARE YOU -0.1368
-0.6021 BE FRIENDS 0.0000
-0.6021 BE HAPPY 0.0000
-0.3010 BIRTHDAY </s> -0.3010
-0.4771 BROTHER </s> -0.3010
-0.7782 BROTHER OR -0.2430
-0.3010 BROTHERS OR -0.2430
-0.9031 CAN I -0.1761
-0.9031 CAN WE -0.1761
-0.6021 CAN YOU -0.2846
-0.6021 COLOR </s> -0.3010
-0.6021 COLOR ARE -0.0248
-0.6021 COLOUR </s> -0.3010
-0.6021 COLOUR ARE -0.0248
-0.3010 COOL </s> -0.3010
-0.3010 DATE </s> -0.3010
-0.7782 DAY ARE -0.2881
-0.7782 DAY GOING 0.0000
-0.7782 DAY IS -0.2596
-0.3010 DEMO GOING 0.0000
-0.9031 DID I -0.1761
-0.4260 DID YOU -0.2762
-0.3010 DO YOU -0.2588
-0.3010 DOING </s> -0.3010
-0.3010 FEEL </s> -0.3010
-0.3010 FOR </s> -0.3010
-0.3010 FRIENDS </s> -0.3010
-0.3010 GOING </s> -0.3010
-0.3010 HAPPY </s> -0.3010
-0.3010 HAVE ANY 0.0000
-0.3010 HEAD </s> -0.3010
-0.3010 HEAR </s> -0.3010
-0.3010 HELLO </s> -0.3010
-0.6690 HOW ARE -0.0248
-1.1461 HOW DO 0.0000
-0.8451 HOW IS -0.0726
-1.1461 HOW TALL 0.0000
-0.3010 HUMAN </s> -0.3010
-0.6021 I SAY -0.1249
-0.6021 I TRUST 0.0000
-0.3010 INTELLIGENT </s> -0.3010
-0.3010 INTRODUCE YOURSELF 0.0000
-1.0414 IS IT 0.0000
-1.0414 IS THE -0.1249
-0.4973 IS YOUR -0.0792
-0.3010 IT </s> -0.3010
-0.3010 JOKE </s> -0.3010
-0.3010 KIND </s> -0.3010
-0.3010 LENGTH </s> -0.3010
-0.3010 ME A -0.0969
-0.3010 MOVE YOUR -0.2553
-0.3010 NAME </s> -0.3010
-0.6021 OR BROTHER -0.1249
-0.9031 OR SISTER -0.1761
-0.9031 OR SISTERS -0.1761
-0.3010 PLEASE </s> -0.3010
-0.3010 REPEAT </s> -0.3010
-0.3010 RESET </s> -0.3010
-0.4771 SAY </s> -0.3010
-0.7782 SAY A -0.0969
-0.3010 SENTIENT </s> -0.3010
-0.6021 SET AN 0.0000
-0.6021 SET THE -0.2218
-0.6021 SISTER </s> -0.3010
-0.6021 SISTER OR -0.1761
-0.6021 SISTERS </s> -0.3010
-0.6021 SISTERS OR -0.1761
-0.3010 SMART </s> -0.3010
-0.3010 SMILE </s> -0.3010
-0.3010 TABLET FOR 0.0000
-0.3010 TALL ARE -0.0248
-0.6021 TELL A -0.0969
-0.6021 TELL ME 0.0000
-0.7782 THE ALARM 0.0000
-0.7782 THE DATE 0.0000
-0.7782 THE DEMO 0.0000
-0.3010 THINK </s> -0.3010
-0.3010 TIME IS -0.2596
-0.3010 TODAY </s> -0.3010
-0.3010 TRUST YOU -0.2407
-0.3010 TURN YOUR -0.2553
-0.3010 UNDERSTAND </s> -0.3010
-0.6021 WE </s> -0.3010
-0.6021 WE BE -0.1761
-1.5051 WHAT ARE -0.0248
-1.5051 WHAT COLOR -0.1761
-1.5051 WHAT COLOUR -0.1761
-1.2041 WHAT DAY -0.1249
-0.9031 WHAT DID 0.0000
-0.7270 WHAT IS -0.0726
-1.5051 WHAT TIME 0.0000
-0.3010 WHAT'S YOUR -0.2553
-0.3010 WHEN IS -0.1347
-0.3010 WHO ARE -0.0248
-0.8873 YOU </s> -0.3010
-1.7324 YOU A -0.2430
-1.7324 YOU ALIVE 0.0000
-1.7324 YOU COOL 0.0000
-1.7324 YOU DOING 0.0000
-1.7324 YOU FEEL 0.0000
-1.1303 YOU HAVE 0.0000
-1.7324 YOU HEAR 0.0000
-1.7324 YOU HUMAN 0.0000
-1.7324 YOU INTELLIGENT 0.0000
-1.7324 YOU KIND 0.0000
-1.7324 YOU PLEASE 0.0000
-1.7324 YOU SAY -0.1249
-1.7324 YOU SENTIENT 0.0000
-1.7324 YOU SMART 0.0000
-1.7324 YOU THINK 0.0000
-1.7324 YOU TODAY 0.0000
-1.7324 YOU UNDERSTAND 0.0000
-1.3010 YOUR BIRTHDAY 0.0000
-1.3010 YOUR COLOR -0.1761
-1.3010 YOUR COLOUR -0.1761
-1.3010 YOUR DAY -0.2218
-1.0000 YOUR HEAD 0.0000
-1.3010 YOUR LENGTH 0.0000
-1.0000 YOUR NAME 0.0000
-1.3010 YOUR TABLET 0.0000
-0.3010 YOURSELF </s> -0.3010

\3-grams:
-0.3010 <s> ARE YOU
-0.3010 <s> BE HAPPY
-0.9031 <s> CAN I
-0.9031 <s> CAN WE
-0.6021 <s> CAN YOU
-0.3010 <s> DO YOU
-0.3010 <s> HELLO </s>
-0.6690 <s> HOW ARE
-1.1461 <s> HOW DO
-0.8451 <s> HOW IS
-1.1461 <s> HOW TALL
-0.3010 <s> INTRODUCE YOURSELF
-0.3010 <s> MOVE YOUR
-0.3010 <s> REPEAT </s>
-0.3010 <s> RESET </s>
-0.3010 <s> SAY A
-0.6021 <s> SET AN
-0.6021 <s> SET THE
-0.3010 <s> SMILE </s>
-0.6021 <s> TELL A
-0.6021 <s> TELL ME
-0.3010 <s> TURN YOUR
-1.5051 <s> WHAT ARE
-1.5051 <s> WHAT COLOR
-1.5051 <s> WHAT COLOUR
-1.2041 <s> WHAT DAY
-0.9031 <s> WHAT DID
-0.7270 <s> WHAT IS
-1.5051 <s> WHAT TIME
-0.3010 <s> WHAT'S YOUR
-0.3010 <s> WHEN IS
-0.3010 <s> WHO ARE
-0.3010 A HUMAN </s>
-0.3010 A JOKE </s>
-0.3010 AN ALARM </s>
-0.3010 ANY BROTHER OR
-0.3010 ANY BROTHERS OR
-0.3010 ANY SISTER OR
-0.3010 ANY SISTERS OR
-0.3010 ARE WE </s>
-0.7270 ARE YOU </s>
-1.5051 ARE YOU A
-1.5051 ARE YOU ALIVE
-1.5051 ARE YOU COOL
-1.5051 ARE YOU DOING
-1.5051 ARE YOU HUMAN
-1.5051 ARE YOU INTELLIGENT
-1.5051 ARE YOU KIND
-1.5051 ARE YOU SENTIENT
-1.5051 ARE YOU SMART
-1.5051 ARE YOU TODAY
-0.3010 BE FRIENDS </s>
-0.3010 BE HAPPY </s>
-0.3010 BROTHER OR SISTER
-0.3010 BROTHERS OR SISTERS
-0.3010 CAN I TRUST
-0.3010 CAN WE BE
-0.6021 CAN YOU PLEASE
-0.6021 CAN YOU THINK
-0.3010 COLOR ARE YOU
-0.3010 COLOUR ARE YOU
-0.3010 DAY ARE WE
-0.3010 DAY GOING </s>
-0.3010 DAY IS IT
-0.3010 DEMO GOING </s>
-0.3010 DID I SAY
-0.7782 DID YOU HEAR
-0.7782 DID YOU SAY
-0.7782 DID YOU UNDERSTAND
-1.0000 DO YOU FEEL
-0.3979 DO YOU HAVE
-0.9031 HAVE ANY BROTHER
-0.9031 HAVE ANY BROTHERS
-0.9031 HAVE ANY SISTER
-0.9031 HAVE ANY SISTERS
-0.3010 HOW ARE YOU
-0.3010 HOW DO YOU
-0.6021 HOW IS THE
-0.6021 HOW IS YOUR
-0.3010 HOW TALL ARE
-0.3010 I SAY </s>
-0.3010 I TRUST YOU
-0.3010 INTRODUCE YOURSELF </s>
-0.3010 IS IT </s>
-0.6021 IS THE DATE
-0.6021 IS THE DEMO
-1.1461 IS YOUR BIRTHDAY
-1.1461 IS YOUR COLOR
-1.1461 IS YOUR COLOUR
-1.1461 IS YOUR DAY
-1.1461 IS YOUR LENGTH
-1.1461 IS YOUR NAME
-1.1461 IS YOUR TABLET
-0.3010 ME A JOKE
-0.3010 MOVE YOUR HEAD
-0.3010 OR BROTHER </s>
-0.3010 OR SISTER </s>
-0.3010 OR SISTERS </s>
-0.3010 SAY A JOKE
-0.3010 SET AN ALARM
-0.3010 SET THE ALARM
-0.3010 SISTER OR BROTHER
-0.3010 SISTERS OR BROTHER
-0.3010 TABLET FOR </s>
-0.3010 TALL ARE YOU
-0.3010 TELL A JOKE
-0.3010 TELL ME A
-0.3010 THE ALARM </s>
-0.3010 THE DATE </s>
-0.3010 THE DEMO GOING
-0.3010 TIME IS IT
-0.3010 TRUST YOU </s>
-0.3010 TURN YOUR HEAD
-0.3010 WE BE FRIENDS
-0.3010 WHAT ARE YOU
-0.3010 WHAT COLOR ARE
-0.3010 WHAT COLOUR ARE
-0.6021 WHAT DAY ARE
-0.6021 WHAT DAY IS
-0.9031 WHAT DID I
-0.4260 WHAT DID YOU
-1.0792 WHAT IS THE
-0.3802 WHAT IS YOUR
-0.3010 WHAT TIME IS
-0.3010 WHAT'S YOUR NAME
-0.3010 WHEN IS YOUR
-0.3010 WHO ARE YOU
-0.3010 YOU A HUMAN
-0.3010 YOU ALIVE </s>
-0.3010 YOU COOL </s>
-0.3010 YOU DOING </s>
-0.3010 YOU FEEL </s>
-0.3010 YOU HAVE ANY
-0.3010 YOU HEAR </s>
-0.3010 YOU HUMAN </s>
-0.3010 YOU INTELLIGENT </s>
-0.3010 YOU KIND </s>
-0.3010 YOU PLEASE </s>
-0.3010 YOU SAY </s>
-0.3010 YOU SENTIENT </s>
-0.3010 YOU SMART </s>
-0.3010 YOU THINK </s>
-0.3010 YOU TODAY </s>
-0.3010 YOU UNDERSTAND </s>
-0.3010 YOUR BIRTHDAY </s>
-0.3010 YOUR COLOR </s>
-0.3010 YOUR COLOUR </s>
-0.3010 YOUR DAY GOING
-0.3010 YOUR HEAD </s>
-0.3010 YOUR LENGTH </s>
-0.3010 YOUR NAME </s>
-0.3010 YOUR TABLET FOR

\end\

